digraph Tree {
node [shape=box, style="filled, rounded", color="black", fontname="helvetica"] ;
edge [fontname="helvetica"] ;
0 [label="petal length (cm) <= 2.45\ngini = 0.66\nsamples = 95\nvalue = [44.0, 51.0, 55.0]\nclass = virginica", fillcolor="#faf7fe"] ;
1 [label="gini = 0.0\nsamples = 28\nvalue = [44, 0, 0]\nclass = setosa", fillcolor="#e58139"] ;
0 -> 1 [labeldistance=2.5, labelangle=45, headlabel="True"] ;
2 [label="petal length (cm) <= 4.75\ngini = 0.5\nsamples = 67\nvalue = [0, 51, 55]\nclass = virginica", fillcolor="#f6f1fd"] ;
0 -> 2 [labeldistance=2.5, labelangle=-45, headlabel="False"] ;
3 [label="gini = 0.0\nsamples = 29\nvalue = [0, 45, 0]\nclass = versicolor", fillcolor="#39e581"] ;
2 -> 3 ;
4 [label="petal width (cm) <= 1.75\ngini = 0.18\nsamples = 38\nvalue = [0, 6, 55]\nclass = virginica", fillcolor="#8f4fe8"] ;
2 -> 4 ;
5 [label="sepal width (cm) <= 2.9\ngini = 0.5\nsamples = 7\nvalue = [0, 5, 5]\nclass = versicolor", fillcolor="#ffffff"] ;
4 -> 5 ;
6 [label="petal length (cm) <= 4.95\ngini = 0.41\nsamples = 5\nvalue = [0, 2, 5]\nclass = virginica", fillcolor="#b388ef"] ;
5 -> 6 ;
7 [label="gini = 0.0\nsamples = 1\nvalue = [0, 1, 0]\nclass = versicolor", fillcolor="#39e581"] ;
6 -> 7 ;
8 [label="sepal length (cm) <= 6.05\ngini = 0.28\nsamples = 4\nvalue = [0, 1, 5]\nclass = virginica", fillcolor="#9a61ea"] ;
6 -> 8 ;
9 [label="petal length (cm) <= 5.05\ngini = 0.5\nsamples = 2\nvalue = [0, 1, 1]\nclass = versicolor", fillcolor="#ffffff"] ;
8 -> 9 ;
10 [label="gini = 0.0\nsamples = 1\nvalue = [0, 0, 1]\nclass = virginica", fillcolor="#8139e5"] ;
9 -> 10 ;
11 [label="gini = 0.0\nsamples = 1\nvalue = [0, 1, 0]\nclass = versicolor", fillcolor="#39e581"] ;
9 -> 11 ;
12 [label="gini = 0.0\nsamples = 2\nvalue = [0, 0, 4]\nclass = virginica", fillcolor="#8139e5"] ;
8 -> 12 ;
13 [label="gini = 0.0\nsamples = 2\nvalue = [0, 3, 0]\nclass = versicolor", fillcolor="#39e581"] ;
5 -> 13 ;
14 [label="petal length (cm) <= 4.85\ngini = 0.04\nsamples = 31\nvalue = [0, 1, 50]\nclass = virginica", fillcolor="#843de6"] ;
4 -> 14 ;
15 [label="sepal length (cm) <= 5.95\ngini = 0.28\nsamples = 3\nvalue = [0, 1, 5]\nclass = virginica", fillcolor="#9a61ea"] ;
14 -> 15 ;
16 [label="gini = 0.0\nsamples = 1\nvalue = [0, 1, 0]\nclass = versicolor", fillcolor="#39e581"] ;
15 -> 16 ;
17 [label="gini = 0.0\nsamples = 2\nvalue = [0, 0, 5]\nclass = virginica", fillcolor="#8139e5"] ;
15 -> 17 ;
18 [label="gini = 0.0\nsamples = 28\nvalue = [0, 0, 45]\nclass = virginica", fillcolor="#8139e5"] ;
14 -> 18 ;
}